digraph Tree {
node [shape=box] ;
0 [label="stellar_mass <= 11.162\ngini = 0.373\nsamples = 1437\nvalue = [356, 1081]"] ;
1 [label="deVAB_r <= 0.628\ngini = 0.196\nsamples = 1146\nvalue = [126, 1020]"] ;
0 -> 1 [labeldistance=2.5, labelangle=45, headlabel="True"] ;
2 [label="deVRad_r <= 1.501\ngini = 0.037\nsamples = 739\nvalue = [14, 725]"] ;
1 -> 2 ;
3 [label="deVAB_r <= 0.387\ngini = 0.459\nsamples = 14\nvalue = [5, 9]"] ;
2 -> 3 ;
4 [label="gini = 0.0\nsamples = 7\nvalue = [0, 7]"] ;
3 -> 4 ;
5 [label="mag_z <= 16.708\ngini = 0.408\nsamples = 7\nvalue = [5, 2]"] ;
3 -> 5 ;
6 [label="gini = 0.0\nsamples = 5\nvalue = [5, 0]"] ;
5 -> 6 ;
7 [label="gini = 0.0\nsamples = 2\nvalue = [0, 2]"] ;
5 -> 7 ;
8 [label="deVRad_r <= 2.517\ngini = 0.025\nsamples = 725\nvalue = [9, 716]"] ;
2 -> 8 ;
9 [label="mag_r <= 16.604\ngini = 0.187\nsamples = 67\nvalue = [7, 60]"] ;
8 -> 9 ;
10 [label="gini = 0.0\nsamples = 4\nvalue = [4, 0]"] ;
9 -> 10 ;
11 [label="deVRad_r <= 2.51\ngini = 0.091\nsamples = 63\nvalue = [3, 60]"] ;
9 -> 11 ;
12 [label="expAB_r <= 0.608\ngini = 0.062\nsamples = 62\nvalue = [2, 60]"] ;
11 -> 12 ;
13 [label="mag_u <= 20.36\ngini = 0.035\nsamples = 56\nvalue = [1, 55]"] ;
12 -> 13 ;
14 [label="gini = 0.0\nsamples = 47\nvalue = [0, 47]"] ;
13 -> 14 ;
15 [label="mag_g <= 18.334\ngini = 0.198\nsamples = 9\nvalue = [1, 8]"] ;
13 -> 15 ;
16 [label="gini = 0.0\nsamples = 1\nvalue = [1, 0]"] ;
15 -> 16 ;
17 [label="gini = 0.0\nsamples = 8\nvalue = [0, 8]"] ;
15 -> 17 ;
18 [label="expAB_r <= 0.612\ngini = 0.278\nsamples = 6\nvalue = [1, 5]"] ;
12 -> 18 ;
19 [label="gini = 0.0\nsamples = 1\nvalue = [1, 0]"] ;
18 -> 19 ;
20 [label="gini = 0.0\nsamples = 5\nvalue = [0, 5]"] ;
18 -> 20 ;
21 [label="gini = 0.0\nsamples = 1\nvalue = [1, 0]"] ;
11 -> 21 ;
22 [label="deVAB_r <= 0.6\ngini = 0.006\nsamples = 658\nvalue = [2, 656]"] ;
8 -> 22 ;
23 [label="deVRad_r <= 3.301\ngini = 0.003\nsamples = 633\nvalue = [1, 632]"] ;
22 -> 23 ;
24 [label="deVRad_r <= 3.297\ngini = 0.029\nsamples = 68\nvalue = [1, 67]"] ;
23 -> 24 ;
25 [label="gini = 0.0\nsamples = 67\nvalue = [0, 67]"] ;
24 -> 25 ;
26 [label="gini = 0.0\nsamples = 1\nvalue = [1, 0]"] ;
24 -> 26 ;
27 [label="gini = 0.0\nsamples = 565\nvalue = [0, 565]"] ;
23 -> 27 ;
28 [label="deVAB_r <= 0.602\ngini = 0.077\nsamples = 25\nvalue = [1, 24]"] ;
22 -> 28 ;
29 [label="gini = 0.0\nsamples = 1\nvalue = [1, 0]"] ;
28 -> 29 ;
30 [label="gini = 0.0\nsamples = 24\nvalue = [0, 24]"] ;
28 -> 30 ;
31 [label="deVRad_r <= 4.086\ngini = 0.399\nsamples = 407\nvalue = [112, 295]"] ;
1 -> 31 ;
32 [label="mag_z <= 15.72\ngini = 0.498\nsamples = 173\nvalue = [92, 81]"] ;
31 -> 32 ;
33 [label="redshift <= 0.074\ngini = 0.212\nsamples = 58\nvalue = [51, 7]"] ;
32 -> 33 ;
34 [label="expRad_r <= 2.453\ngini = 0.053\nsamples = 37\nvalue = [36, 1]"] ;
33 -> 34 ;
35 [label="gini = 0.0\nsamples = 34\nvalue = [34, 0]"] ;
34 -> 35 ;
36 [label="deVRad_r <= 3.726\ngini = 0.444\nsamples = 3\nvalue = [2, 1]"] ;
34 -> 36 ;
37 [label="gini = 0.0\nsamples = 1\nvalue = [0, 1]"] ;
36 -> 37 ;
38 [label="gini = 0.0\nsamples = 2\nvalue = [2, 0]"] ;
36 -> 38 ;
39 [label="stellar_mass <= 10.867\ngini = 0.408\nsamples = 21\nvalue = [15, 6]"] ;
33 -> 39 ;
40 [label="gini = 0.0\nsamples = 4\nvalue = [0, 4]"] ;
39 -> 40 ;
41 [label="stellar_mass <= 10.994\ngini = 0.208\nsamples = 17\nvalue = [15, 2]"] ;
39 -> 41 ;
42 [label="mag_g <= 17.218\ngini = 0.48\nsamples = 5\nvalue = [3, 2]"] ;
41 -> 42 ;
43 [label="gini = 0.0\nsamples = 3\nvalue = [3, 0]"] ;
42 -> 43 ;
44 [label="gini = 0.0\nsamples = 2\nvalue = [0, 2]"] ;
42 -> 44 ;
45 [label="gini = 0.0\nsamples = 12\nvalue = [12, 0]"] ;
41 -> 45 ;
46 [label="deVRad_r <= 1.792\ngini = 0.459\nsamples = 115\nvalue = [41, 74]"] ;
32 -> 46 ;
47 [label="mag_i <= 17.299\ngini = 0.387\nsamples = 42\nvalue = [31, 11]"] ;
46 -> 47 ;
48 [label="mag_g <= 18.457\ngini = 0.349\nsamples = 40\nvalue = [31, 9]"] ;
47 -> 48 ;
49 [label="mag_r <= 17.384\ngini = 0.444\nsamples = 27\nvalue = [18, 9]"] ;
48 -> 49 ;
50 [label="deVRad_r <= 1.493\ngini = 0.375\nsamples = 24\nvalue = [18, 6]"] ;
49 -> 50 ;
51 [label="gini = 0.0\nsamples = 12\nvalue = [12, 0]"] ;
50 -> 51 ;
52 [label="deVRad_r <= 1.758\ngini = 0.5\nsamples = 12\nvalue = [6, 6]"] ;
50 -> 52 ;
53 [label="redshift <= 0.066\ngini = 0.375\nsamples = 8\nvalue = [2, 6]"] ;
52 -> 53 ;
54 [label="gini = 0.0\nsamples = 1\nvalue = [1, 0]"] ;
53 -> 54 ;
55 [label="redshift <= 0.171\ngini = 0.245\nsamples = 7\nvalue = [1, 6]"] ;
53 -> 55 ;
56 [label="gini = 0.0\nsamples = 6\nvalue = [0, 6]"] ;
55 -> 56 ;
57 [label="gini = 0.0\nsamples = 1\nvalue = [1, 0]"] ;
55 -> 57 ;
58 [label="gini = 0.0\nsamples = 4\nvalue = [4, 0]"] ;
52 -> 58 ;
59 [label="gini = 0.0\nsamples = 3\nvalue = [0, 3]"] ;
49 -> 59 ;
60 [label="gini = 0.0\nsamples = 13\nvalue = [13, 0]"] ;
48 -> 60 ;
61 [label="gini = 0.0\nsamples = 2\nvalue = [0, 2]"] ;
47 -> 61 ;
62 [label="stellar_mass <= 11.092\ngini = 0.236\nsamples = 73\nvalue = [10, 63]"] ;
46 -> 62 ;
63 [label="stellar_mass <= 9.698\ngini = 0.161\nsamples = 68\nvalue = [6, 62]"] ;
62 -> 63 ;
64 [label="gini = 0.0\nsamples = 1\nvalue = [1, 0]"] ;
63 -> 64 ;
65 [label="deVAB_r <= 0.897\ngini = 0.138\nsamples = 67\nvalue = [5, 62]"] ;
63 -> 65 ;
66 [label="stellar_mass <= 10.958\ngini = 0.067\nsamples = 58\nvalue = [2, 56]"] ;
65 -> 66 ;
67 [label="gini = 0.0\nsamples = 49\nvalue = [0, 49]"] ;
66 -> 67 ;
68 [label="deVAB_r <= 0.799\ngini = 0.346\nsamples = 9\nvalue = [2, 7]"] ;
66 -> 68 ;
69 [label="deVAB_r <= 0.656\ngini = 0.219\nsamples = 8\nvalue = [1, 7]"] ;
68 -> 69 ;
70 [label="mag_i <= 17.05\ngini = 0.5\nsamples = 2\nvalue = [1, 1]"] ;
69 -> 70 ;
71 [label="gini = 0.0\nsamples = 1\nvalue = [1, 0]"] ;
70 -> 71 ;
72 [label="gini = 0.0\nsamples = 1\nvalue = [0, 1]"] ;
70 -> 72 ;
73 [label="gini = 0.0\nsamples = 6\nvalue = [0, 6]"] ;
69 -> 73 ;
74 [label="gini = 0.0\nsamples = 1\nvalue = [1, 0]"] ;
68 -> 74 ;
75 [label="deVAB_r <= 0.929\ngini = 0.444\nsamples = 9\nvalue = [3, 6]"] ;
65 -> 75 ;
76 [label="deVRad_r <= 1.9\ngini = 0.375\nsamples = 4\nvalue = [3, 1]"] ;
75 -> 76 ;
77 [label="gini = 0.0\nsamples = 1\nvalue = [0, 1]"] ;
76 -> 77 ;
78 [label="gini = 0.0\nsamples = 3\nvalue = [3, 0]"] ;
76 -> 78 ;
79 [label="gini = 0.0\nsamples = 5\nvalue = [0, 5]"] ;
75 -> 79 ;
80 [label="expAB_r <= 0.675\ngini = 0.32\nsamples = 5\nvalue = [4, 1]"] ;
62 -> 80 ;
81 [label="gini = 0.0\nsamples = 1\nvalue = [0, 1]"] ;
80 -> 81 ;
82 [label="gini = 0.0\nsamples = 4\nvalue = [4, 0]"] ;
80 -> 82 ;
83 [label="mag_z <= 14.697\ngini = 0.156\nsamples = 234\nvalue = [20, 214]"] ;
31 -> 83 ;
84 [label="deVRad_r <= 6.566\ngini = 0.475\nsamples = 36\nvalue = [14, 22]"] ;
83 -> 84 ;
85 [label="gini = 0.0\nsamples = 9\nvalue = [9, 0]"] ;
84 -> 85 ;
86 [label="mag_i <= 12.532\ngini = 0.302\nsamples = 27\nvalue = [5, 22]"] ;
84 -> 86 ;
87 [label="gini = 0.0\nsamples = 2\nvalue = [2, 0]"] ;
86 -> 87 ;
88 [label="deVRad_r <= 7.938\ngini = 0.211\nsamples = 25\nvalue = [3, 22]"] ;
86 -> 88 ;
89 [label="deVAB_r <= 0.736\ngini = 0.5\nsamples = 4\nvalue = [2, 2]"] ;
88 -> 89 ;
90 [label="gini = 0.0\nsamples = 2\nvalue = [0, 2]"] ;
89 -> 90 ;
91 [label="gini = 0.0\nsamples = 2\nvalue = [2, 0]"] ;
89 -> 91 ;
92 [label="deVAB_r <= 0.657\ngini = 0.091\nsamples = 21\nvalue = [1, 20]"] ;
88 -> 92 ;
93 [label="mag_u <= 17.187\ngini = 0.5\nsamples = 2\nvalue = [1, 1]"] ;
92 -> 93 ;
94 [label="gini = 0.0\nsamples = 1\nvalue = [1, 0]"] ;
93 -> 94 ;
95 [label="gini = 0.0\nsamples = 1\nvalue = [0, 1]"] ;
93 -> 95 ;
96 [label="gini = 0.0\nsamples = 19\nvalue = [0, 19]"] ;
92 -> 96 ;
97 [label="deVAB_r <= 0.631\ngini = 0.059\nsamples = 198\nvalue = [6, 192]"] ;
83 -> 97 ;
98 [label="mag_u <= 18.645\ngini = 0.5\nsamples = 2\nvalue = [1, 1]"] ;
97 -> 98 ;
99 [label="gini = 0.0\nsamples = 1\nvalue = [0, 1]"] ;
98 -> 99 ;
100 [label="gini = 0.0\nsamples = 1\nvalue = [1, 0]"] ;
98 -> 100 ;
101 [label="expRad_r <= 2.018\ngini = 0.05\nsamples = 196\nvalue = [5, 191]"] ;
97 -> 101 ;
102 [label="expRad_r <= 1.996\ngini = 0.444\nsamples = 3\nvalue = [1, 2]"] ;
101 -> 102 ;
103 [label="gini = 0.0\nsamples = 2\nvalue = [0, 2]"] ;
102 -> 103 ;
104 [label="gini = 0.0\nsamples = 1\nvalue = [1, 0]"] ;
102 -> 104 ;
105 [label="expAB_r <= 0.617\ngini = 0.041\nsamples = 193\nvalue = [4, 189]"] ;
101 -> 105 ;
106 [label="expAB_r <= 0.612\ngini = 0.444\nsamples = 3\nvalue = [1, 2]"] ;
105 -> 106 ;
107 [label="gini = 0.0\nsamples = 2\nvalue = [0, 2]"] ;
106 -> 107 ;
108 [label="gini = 0.0\nsamples = 1\nvalue = [1, 0]"] ;
106 -> 108 ;
109 [label="redshift <= 0.074\ngini = 0.031\nsamples = 190\nvalue = [3, 187]"] ;
105 -> 109 ;
110 [label="stellar_mass <= 10.73\ngini = 0.109\nsamples = 52\nvalue = [3, 49]"] ;
109 -> 110 ;
111 [label="expRad_r <= 2.504\ngini = 0.04\nsamples = 49\nvalue = [1, 48]"] ;
110 -> 111 ;
112 [label="redshift <= 0.044\ngini = 0.5\nsamples = 2\nvalue = [1, 1]"] ;
111 -> 112 ;
113 [label="gini = 0.0\nsamples = 1\nvalue = [1, 0]"] ;
112 -> 113 ;
114 [label="gini = 0.0\nsamples = 1\nvalue = [0, 1]"] ;
112 -> 114 ;
115 [label="gini = 0.0\nsamples = 47\nvalue = [0, 47]"] ;
111 -> 115 ;
116 [label="mag_z <= 14.869\ngini = 0.444\nsamples = 3\nvalue = [2, 1]"] ;
110 -> 116 ;
117 [label="gini = 0.0\nsamples = 1\nvalue = [0, 1]"] ;
116 -> 117 ;
118 [label="gini = 0.0\nsamples = 2\nvalue = [2, 0]"] ;
116 -> 118 ;
119 [label="gini = 0.0\nsamples = 138\nvalue = [0, 138]"] ;
109 -> 119 ;
120 [label="expAB_r <= 0.58\ngini = 0.331\nsamples = 291\nvalue = [230, 61]"] ;
0 -> 120 [labeldistance=2.5, labelangle=-45, headlabel="False"] ;
121 [label="mag_i <= 15.617\ngini = 0.194\nsamples = 55\nvalue = [6, 49]"] ;
120 -> 121 ;
122 [label="deVRad_r <= 6.368\ngini = 0.5\nsamples = 8\nvalue = [4, 4]"] ;
121 -> 122 ;
123 [label="gini = 0.0\nsamples = 3\nvalue = [3, 0]"] ;
122 -> 123 ;
124 [label="mag_i <= 14.167\ngini = 0.32\nsamples = 5\nvalue = [1, 4]"] ;
122 -> 124 ;
125 [label="gini = 0.0\nsamples = 1\nvalue = [1, 0]"] ;
124 -> 125 ;
126 [label="gini = 0.0\nsamples = 4\nvalue = [0, 4]"] ;
124 -> 126 ;
127 [label="redshift <= 0.24\ngini = 0.081\nsamples = 47\nvalue = [2, 45]"] ;
121 -> 127 ;
128 [label="expRad_r <= 1.426\ngini = 0.043\nsamples = 46\nvalue = [1, 45]"] ;
127 -> 128 ;
129 [label="mag_i <= 16.939\ngini = 0.5\nsamples = 2\nvalue = [1, 1]"] ;
128 -> 129 ;
130 [label="gini = 0.0\nsamples = 1\nvalue = [1, 0]"] ;
129 -> 130 ;
131 [label="gini = 0.0\nsamples = 1\nvalue = [0, 1]"] ;
129 -> 131 ;
132 [label="gini = 0.0\nsamples = 44\nvalue = [0, 44]"] ;
128 -> 132 ;
133 [label="gini = 0.0\nsamples = 1\nvalue = [1, 0]"] ;
127 -> 133 ;
134 [label="deVRad_r <= 13.695\ngini = 0.097\nsamples = 236\nvalue = [224, 12]"] ;
120 -> 134 ;
135 [label="expRad_r <= 8.873\ngini = 0.074\nsamples = 233\nvalue = [224, 9]"] ;
134 -> 135 ;
136 [label="stellar_mass <= 11.279\ngini = 0.067\nsamples = 232\nvalue = [224, 8]"] ;
135 -> 136 ;
137 [label="redshift <= 0.145\ngini = 0.26\nsamples = 52\nvalue = [44, 8]"] ;
136 -> 137 ;
138 [label="deVRad_r <= 1.897\ngini = 0.054\nsamples = 36\nvalue = [35, 1]"] ;
137 -> 138 ;
139 [label="redshift <= 0.094\ngini = 0.5\nsamples = 2\nvalue = [1, 1]"] ;
138 -> 139 ;
140 [label="gini = 0.0\nsamples = 1\nvalue = [0, 1]"] ;
139 -> 140 ;
141 [label="gini = 0.0\nsamples = 1\nvalue = [1, 0]"] ;
139 -> 141 ;
142 [label="gini = 0.0\nsamples = 34\nvalue = [34, 0]"] ;
138 -> 142 ;
143 [label="expRad_r <= 1.744\ngini = 0.492\nsamples = 16\nvalue = [9, 7]"] ;
137 -> 143 ;
144 [label="mag_g <= 18.894\ngini = 0.375\nsamples = 12\nvalue = [9, 3]"] ;
143 -> 144 ;
145 [label="mag_u <= 19.515\ngini = 0.298\nsamples = 11\nvalue = [9, 2]"] ;
144 -> 145 ;
146 [label="gini = 0.0\nsamples = 1\nvalue = [0, 1]"] ;
145 -> 146 ;
147 [label="deVRad_r <= 1.843\ngini = 0.18\nsamples = 10\nvalue = [9, 1]"] ;
145 -> 147 ;
148 [label="gini = 0.0\nsamples = 6\nvalue = [6, 0]"] ;
147 -> 148 ;
149 [label="deVRad_r <= 1.942\ngini = 0.375\nsamples = 4\nvalue = [3, 1]"] ;
147 -> 149 ;
150 [label="gini = 0.0\nsamples = 1\nvalue = [0, 1]"] ;
149 -> 150 ;
151 [label="gini = 0.0\nsamples = 3\nvalue = [3, 0]"] ;
149 -> 151 ;
152 [label="gini = 0.0\nsamples = 1\nvalue = [0, 1]"] ;
144 -> 152 ;
153 [label="gini = 0.0\nsamples = 4\nvalue = [0, 4]"] ;
143 -> 153 ;
154 [label="gini = 0.0\nsamples = 180\nvalue = [180, 0]"] ;
136 -> 154 ;
155 [label="gini = 0.0\nsamples = 1\nvalue = [0, 1]"] ;
135 -> 155 ;
156 [label="gini = 0.0\nsamples = 3\nvalue = [0, 3]"] ;
134 -> 156 ;
}